0.806464669204533,-0.809755159453375,-0.660367198595948,-0.627726290201641,0.0645647961946972,-0.379070686352938,-0.229446744187477,-0.899180876509836,
-0.160095155313655,-0.107133385775207,0.831186160366603,0.638683206699175,0.607875733919384,-0.834108480640738,-0.593631986339405,0.761882793047411,
-0.756417567728282,0.529552324921616,-0.886868079140255,-0.356672890650422,0.276039029600117,0.263625436119561,0.754951298122737,-0.685562209545431,
0.471352232373949,0.816642886407973,-0.482110658885031,-0.158996972329448,-0.685428315627122,0.324493061902231,-0.656489291999717,-0.679156957044805,

-0.658013806984766,-0.829691626052229,0.365987896158354,-0.496314760994313,
0.92210809370601,0.147512699080404,0.922746509277609,0.592105844333817,
-0.625770504412134,-0.696637134392111,-0.864074822917615,0.197867555170258,
0.848739559691744,0.828563440045604,0.608736472487793,0.918135711419459,
-0.716429678125507,0.811632165131919,-0.934191853243016,-0.724444500042333,
0.0678871227744441,0.533359337380789,0.705032107748572,-0.384732373703612,
-0.534213911990735,-0.438683774526549,-0.937003614351621,0.947791872987427,
0.158911947234958,0.290972025269164,0.284075708726456,-0.0343986982639873,